9 26
0 1.850588 0.830303 -0.191896 -1.045115 0.505562 -0.200553 -0.050742 0.13008 3.053755 1.433569 -0.041825 -1.78883 -0.094202 0.089586 -0.459508 -0.309663 -0.11008 4.866181 2.22298 0.121998 0.05738 2.989983 -0.308342 -0.771511 -0.265161 0.491672
1 1.207391 -1.041898 0.126836 -0.047614 0.20108 0.967246 0.191076 0.189968 1.986099 -1.576634 -0.158664 0.161196 1.013833 1.562144 0.347487 -0.345401 0.01183 3.145423 -1.64266 -1.225175 -3.435987 -0.479035 1.606629 0.03074 -0.480261 0.1073
2 1.188927 0.931284 0.089476 -0.004928 -1.120979 0.403132 0.194414 -0.181278 1.91365 1.80887 0.097809 0.765877 1.351447 -0.421045 0.770864 0.39684 0.192125 2.953462 3.391384 0.03733 -1.149727 -1.662207 -1.414858 1.096449 0.322216 -0.792043
3 1.541783 -0.948771 -0.094118 0.014943 -0.073187 -0.172418 -0.618337 -0.337874 2.5019 -1.497652 -0.284534 0.18921 0.107144 -0.477646 -0.974225 0.808616 0.120295 3.988445 -2.647114 -0.410472 0.669848 -0.570027 -1.046523 -1.542457 1.035089 -0.694214
4 1.54687 -0.447575 0.671183 0.533284 -0.30057 -0.728973 0.295225 0.238886 2.489298 -0.986318 1.031641 0.670041 -0.66237 -1.136445 0.493327 -0.607405 -0.193471 3.963646 -2.033719 1.867637 1.288111 -1.023158 -0.773682 1.35929 -0.758336 0.823649
5 0.451265 -0.023006 -1.259903 0.367417 -0.008656 -0.075931 0.127082 0.042334 0.697913 0.189865 -2.03451 0.350973 -0.466462 0.054177 0.397503 0.197009 -0.853154 1.073465 0.53663 -3.199775 1.000627 -0.488686 0.578496 0.847164 1.107696 1.141338
6 0.451265 -0.023006 -1.259903 0.367417 -0.008656 -0.075931 0.127082 0.042334 0.675869 0.110825 -2.04555 0.352309 -0.615303 -0.199929 0.062071 -0.397289 0.804648 1.1152 0.10538 -2.937997 1.942738 -0.203464 0.380247 0.061913 -1.357843 -0.927939
7 0.74425 0.536652 0.348272 0.632578 0.905468 0.09093 0.388578 -0.32813 1.21809 0.428394 0.820024 0.099353 -1.686427 0.981121 0.622814 0.55406 0.21437 1.977655 0.234332 1.678586 1.164126 0.527168 2.891226 0.903616 0.674615 -0.804256
8 0.424346 0.920717 0.189408 0.81788 0.15575 0.278821 -0.648462 0.242351 0.565392 1.353081 0.359149 1.64749 -0.239997 0.629258 -1.11555 -0.323173 -0.148373 0.848442 2.115553 0.914508 0.711768 -2.470263 1.300451 -1.864505 -0.332716 0.605318
